digraph Tree {
node [shape=box, style="filled, rounded", color="black", fontname=helvetica] ;
edge [fontname=helvetica] ;
0 [label="petal width (cm) <= 0.7\ngini = 0.66\nsamples = 90\nvalue = [54, 45, 51]\nclass = setosa", fillcolor="#fefbf9"] ;
1 [label="gini = 0.0\nsamples = 34\nvalue = [54, 0, 0]\nclass = setosa", fillcolor="#e58139"] ;
0 -> 1 [labeldistance=2.5, labelangle=45, headlabel="True"] ;
2 [label="petal width (cm) <= 1.7\ngini = 0.5\nsamples = 56\nvalue = [0, 45, 51]\nclass = virginica", fillcolor="#f0e8fc"] ;
0 -> 2 [labeldistance=2.5, labelangle=-45, headlabel="False"] ;
3 [label="sepal length (cm) <= 7.1\ngini = 0.21\nsamples = 29\nvalue = [0, 45, 6]\nclass = versicolor", fillcolor="#53e892"] ;
2 -> 3 ;
4 [label="sepal length (cm) <= 5.95\ngini = 0.12\nsamples = 28\nvalue = [0, 45, 3]\nclass = versicolor", fillcolor="#46e789"] ;
3 -> 4 ;
5 [label="gini = 0.0\nsamples = 15\nvalue = [0, 27, 0]\nclass = versicolor", fillcolor="#39e581"] ;
4 -> 5 ;
6 [label="sepal length (cm) <= 6.35\ngini = 0.24\nsamples = 13\nvalue = [0, 18, 3]\nclass = versicolor", fillcolor="#5ae996"] ;
4 -> 6 ;
7 [label="petal length (cm) <= 4.95\ngini = 0.38\nsamples = 8\nvalue = [0, 9, 3]\nclass = versicolor", fillcolor="#7beeab"] ;
6 -> 7 ;
8 [label="gini = 0.0\nsamples = 6\nvalue = [0, 9, 0]\nclass = versicolor", fillcolor="#39e581"] ;
7 -> 8 ;
9 [label="gini = 0.0\nsamples = 2\nvalue = [0, 0, 3]\nclass = virginica", fillcolor="#8139e5"] ;
7 -> 9 ;
10 [label="gini = 0.0\nsamples = 5\nvalue = [0, 9, 0]\nclass = versicolor", fillcolor="#39e581"] ;
6 -> 10 ;
11 [label="gini = 0.0\nsamples = 1\nvalue = [0, 0, 3]\nclass = virginica", fillcolor="#8139e5"] ;
3 -> 11 ;
12 [label="gini = 0.0\nsamples = 27\nvalue = [0, 0, 45]\nclass = virginica", fillcolor="#8139e5"] ;
2 -> 12 ;
}